{"layers":[{"inputs":[0,0,0,0,0.30754055528550495],"outputs":[0,0,1,0,0,0],"biases":[0.20118965818333379,0.6608203165875103,-0.06533288073446708,0.3769200851267971,0.3264472000827957,0.3886064305667729],"weights":[[-0.38981687723761804,-0.6889381474826581,-0.008570070138822102,-0.2755714730383656,-0.06297322020863977,0.37789185948608695],[0.25591482009206123,0.5202462775451804,-0.04987549641665043,-0.06349159144068638,0.42526629975120056,0.47542621356125714],[-0.03683995367883505,-0.18259332530555972,-0.44298961959635824,0.5643763729193156,0.5229292999368602,0.3691526458894891],[-0.5693939294176315,-0.5024638276633022,0.24001085387618384,0.008954504868747326,0.06299525719369077,-0.043699634990177386],[0.614626299065635,0.19953243595286085,0.28572483048866676,0.4810872133951196,-0.1628861654259727,-0.18256502127498445]]},{"inputs":[0,0,1,0,0,0],"outputs":[1,1,1,0],"biases":[0.38785614553161313,-0.2414561611007293,0.4049812657512517,0.25372101004028624],"weights":[[0.42307970503244663,0.10067560568033908,-0.5655592786661907,-0.4783767385098911],[-0.3877306149135847,0.11971890909425734,0.4218842268781019,-0.5278621129659528],[0.3918568513169194,0.16712638586443168,0.4483616252628656,-0.1047175226136576],[0.003027836772836294,0.7583680266602529,-0.15183317314909894,-0.12220789771646215],[0.39438974802595184,0.3955741267627243,0.04754118007293076,0.30888608958972535],[0.5174622985144105,-0.7684349088801847,0.5603985464676582,0.39305702919443986]]}]}